function [y1] = primalNet_vFcn(x1)
%PRIMALNET_VFCN neural network simulation function.
%
% Auto-generated by MATLAB, 12-Dec-2023 12:23:44.
% 
% [y1] = primalNet_vFcn(x1) takes these arguments:
%   x = 3xQ matrix, input #1
% and returns:
%   y = 20xQ matrix, output #1
% where Q is the number of samples.

%#ok<*RPMT0>

% ===== NEURAL NETWORK CONSTANTS =====

% Input 1
x1_step1.xoffset = [-1.5707963267949;-2.61799387799149;-12];
x1_step1.gain = [0.636619772367581;0.381971863420549;0.0833333333333333];
x1_step1.ymin = -1;

% Layer 1
b1 = [0.22532972165535686271;0.024942398901413538603;1.0702577814839508985;-0.61460223323932294814;-0.27400862488023297603;0.047373216617574771814;-0.058824662185360102051;0.0017926454189546511819;-0.3254424917972014164;-0.92739429335642586949;0.17440839226960944131;1.0229383077376730249;1.2120817577107898533;0.3926996212706354572;0.2883954519100649927;-0.34795238874358325187;0.12527444656879357932;0.074962236211481722559;-0.26287805681285697501;0.14377472227977025621];
IW1_1 = [0.53523267904705107423 -0.16134292042537981549 1.2203442719265553684;0.019704134180320669739 -0.13620408392145957888 0.073769124034588809402;-0.324556808549467668 -0.11111734772544104577 1.3987361519947520971;-1.0561529913668747938 0.064530626986922495769 -0.046211020435025833286;1.2309710348518398959 -0.11435935769367458481 1.8597158712502175337;-0.19667806041511468051 0.1407144226013473387 0.041475719617116803273;-0.21797020226615429483 0.041613170794887258119 0.1268234345745917202;0.21062579030277592262 -0.1715567784158664455 -0.0865675484247393906;0.66552833987505144453 -0.071161925431499198358 0.013993964788321376289;0.65599650300707368356 -1.1779735475809156586 0.53236046960525418292;0.19143088687125772718 -0.031772410066795812866 -0.15396957496262744791;-0.38383539723539039645 -0.050265017946003597016 0.67516866510606643459;0.95794743034297646922 -0.13148223405085712745 0.51224815198894357859;0.22807819781382321356 0.03175616404535684667 -0.34089347738614717009;-0.74614562375359372304 0.093764340215763020137 -0.24216459289170561009;0.11984945455783239943 0.014646539891183980864 -0.73678060481584550789;-0.41371457036014647191 0.013100233296093262078 0.25171224263250185915;0.68353667373166537846 -0.10167061425061335589 0.1032210728801826044;-0.8822645260095101083 0.21300548095626270495 -0.52511223896502201569;0.4275502087485887337 0.092909563079147411413 1.3219813462749476773];

% Layer 2
b2 = [-1.3168901408001365549;0.89605722326894321483;2.4420606572642031828;0.031664005684151626252;-0.58426063124207339161;1.9229922343243326388;2.2683308238840602655;-0.016859795147501355217;1.037006032507089337;0.99049432009038962388;0.85123147087902728547;-1.0637295386584277868;0.80544347760795242941;1.330802905824473914;-1.2129200379201567905;0.27095293607158998928;2.4549312662967888166;-1.2969763197065020677;0.10861993517523224617;-0.95753042603892069007];
LW2_1 = [-0.60925340338445432842 0.34518824000595854651 0.21487509828197759454 0.80535768536631779924 0.1731305612787487902 0.44998144517828786437 -0.90829369700895157269 0.18479829358157071062 -1.2338314695184215974 0.79298060579106321999 0.52806585750298851156 -0.065852160657351638262 0.45034117184071520423 0.39929443562042127303 1.9532740208688386119 -1.151445646311811899 -0.15816950720023814636 0.47388163265809024605 -0.94655552763514638759 0.1350636959803357684;-0.1398103899831478758 -0.41478180114343904394 -0.73402536398857531896 0.61793834443289685776 1.2802706711949587426 -0.0016799146170380289782 1.9648852298989620824 0.17391285802581873954 -0.67769699232278224343 -0.16958892580943016326 0.92769071431166916231 0.98599868412732016854 -0.74993707515175234146 0.51631194448560946419 0.46062431011185567264 -0.10009809097151234347 -0.20391208731675578014 -0.24930654257120346551 -1.2846767765298430231 -0.91634169448510893741;-0.17894085535134698906 0.3396130059890445918 -0.34657684626238344228 -0.33707829580844062001 -0.39734496845502043083 -0.034939307460345993273 0.61021450536768107042 0.54603570250474919856 -1.0571312303961604151 -0.78590885181653891145 -0.25404781616872806893 -0.98122846726870749379 -0.54881237886157374639 -1.3330751515290155673 -0.17134156888066728874 1.4031959262532682775 0.11948405413452245494 -0.071029352381761265423 -1.2304368520451738345 1.3415681829117616086;0.44746771481389058245 -1.2367952203960768109 0.55004142009689815929 -0.68070022972875865452 -0.95360616412663279373 -0.71198517619981860349 0.41931736289606885704 -0.15931859222966396339 -1.0387373174095335671 0.49220093698281847105 0.9982163523550088291 -0.64724395391542188793 1.239625928831885826 -1.0117760593811715442 0.87370702558559765194 0.74221682407489897315 -0.99639710692455485397 0.77085702343621520516 0.077955606010547545681 0.39557505696860550959;-0.17571985109598001196 0.47554247233886220991 -0.58696126917077295904 0.12603343180608966856 0.4384285355288000674 -0.20699484515428503983 -0.41628107642971851066 -0.25374851648867358112 -0.65263070052086002981 0.71097653544843719686 0.17117016653753747146 -0.091675207074025752418 1.0497992990779276834 -0.37035103930799112559 0.87262847733355297652 -0.48886503396492397844 1.1820163587386149917 -1.3943121988120981136 -0.60975858836690255416 -0.14615607082521769877;-0.45890301108784031792 -0.69161978971408688555 -0.98332327258527518765 -1.0566359626029564467 1.1163180270448409548 -0.52172169165445914096 0.38358316665190561601 0.079094159194663254953 -0.53543657282285028742 0.35104591122471306974 -0.17387239665682518996 1.2083479287110145961 0.07964206471722636016 -1.3213173950010310698 -0.85812710256481017357 0.41659170722898430927 -0.22611293965708814668 0.26250676766426334074 0.67978787323676637122 -0.57758147504453427601;-0.53772124851320457495 -0.40479398603899541254 -0.20903470817851876884 -0.44445033668816585903 -0.026852949989635655631 0.87198606321311411538 -0.45278303208217396403 0.38814716170588287047 0.31055683359059693682 -0.04538504257749353954 -0.29269468518052793593 -0.26474103785565100688 -2.3037974847401905265 0.22444422065107036413 1.5598106471570867271 -0.067437166448363117244 -0.24737147216988775167 -0.13080610720386040557 -1.9332072405921767455 -1.1484718126369957147;-0.83293773197966369803 -0.25847245241846000807 -0.36590473589535160714 -2.115670787922816487 -0.37963577400113451832 1.2545548644311281805 0.68917212203173672247 -0.046555056071987614696 0.16945508974026815552 0.57280475677459907757 0.17331917465921972688 0.48422093914291952643 0.22559281655408339184 -0.43362203474316945995 -0.33897685221656620458 0.31198258354600716391 0.028426487367681288476 -0.45938010579228127916 -0.26725060666216637895 1.0493298861176452164;-0.61413578834321258526 -0.60994097812526060221 -0.48660412993501012124 -1.0536369301131986997 1.3866403857034492741 -0.48320643773432375712 -0.57352444867193752565 0.65247905803612160636 -0.4330627582204819026 1.2841736864870429979 -0.19115759032568110931 0.18831522544494078142 0.09779200052436576307 -0.49873013566505636218 -0.091406239922024276612 0.12724924410017074417 -0.28251819097584734974 -1.116540211854485376 -0.49408808061249331889 -0.87704231665400922413;-1.0646968034169257411 0.059468010773327313612 -0.72863898560094331192 -0.53929820700498964925 0.98400419804373417954 -1.2712786099962314346 0.22762633991791006438 -0.029152834743779876964 0.095953007508707333084 0.87730216379950154426 1.4299432734982207016 1.3677916231729692065 -0.82953929890982147644 -0.18404036865501108289 -0.47192384861607439284 -0.18618680430996342734 0.15963315549474582644 -0.30907476111752840708 1.2448824801487470282 -1.3596062104966588624;0.20997490501176760413 0.3682468355113352465 -1.2784178208082634942 0.3643926120264755486 -0.85854385583774972535 0.65493775517624264193 0.77778227781098496774 0.59928153768637404397 -1.0489459234033216006 -0.099669930387695296337 0.30773937015552133012 0.75667792319468185624 -0.36025273857306810976 -0.31725863624376055006 -0.037303495109954586118 0.92418825966509421388 0.74072894352000695495 -0.69616504301772719199 -1.8119019439058596799 0.22730785875250034134;1.0818909769980320501 -0.20828755819240624136 -0.014811039683328655614 -0.8247138431725026253 -1.1216808673397016261 -0.198370705139573833 0.20372197097292008006 0.18300729700095696995 -0.44397427605072031787 -0.20589760835527648464 0.9664061896422491138 -0.27651528148008464036 0.35944051411848376709 0.47361919064353513731 0.77427787874054276873 -0.3478119633611785888 -0.1960989368509431785 -0.14845090908071503777 -0.082916149422747470465 0.65513902142186331012;-0.67384490025152588011 -0.25670533126226907639 -0.98681796510781183418 -1.2699885503812489151 1.5759055762869094153 -0.61757109520478703502 0.40986769594330119126 0.72264177139245289183 -0.49726128466762326008 -0.80263159014007801062 -0.052740499573867269389 0.38318496595757201018 0.0026389688451682676192 -0.067120944742053142984 0.9054498622420740217 0.21760914087781280113 1.2620720015031836603 -1.1750339630963462234 0.45950106531207829397 -0.60611625812735026031;-0.43635548770478338465 1.3750259849638373222 0.095239055690557627987 0.8421665984707956687 -0.15282515479578892559 0.53320197162503168986 0.52152853172065172238 0.33198695959179930215 -0.25823973739742439593 -0.14286041357847256705 -0.54504034602424644707 -1.1555099520241722821 0.33947130249247708944 -0.92482236606402723478 -0.66940828158215848198 0.76904818297828658746 0.22044163721377973975 -1.2032856949569781246 -0.61540978143927860256 0.64243135092016212528;1.3177757044192590641 0.24198209080166746543 -0.29337152396818261257 0.68182508554505438791 -1.3638547889631589261 0.36270978036442419468 -0.90116651774091938165 -0.13823713281350674675 0.43410072536051041991 0.11530229772340480632 -0.22744069769153585359 0.14291799690287895763 0.55694061164754493642 0.53668403892706406655 0.75972830967052362716 0.3892844374856794798 -0.072854257194790078556 -0.41419044469505034156 -0.14966837164797403004 0.71939068679975304299;0.26431852141104333898 -0.2460975156565591293 -0.17084325208527181839 0.17633618791879704379 0.37227175217410307662 -0.72596902967050391808 0.20907080461223337409 -1.371355430391901109 0.4612882913106332583 1.2540499430295344307 0.65322614823648450511 0.48824461721896383892 -0.14253943936656851554 -0.6626048927743758421 -0.20188991253025440065 -0.74196876099550457262 -0.98052889703773082886 -0.18847101995533899199 0.79606784985611345196 -0.7547319142601874864;-0.18316430784046988656 0.085897361797635393699 -0.053483669613638012974 0.46720166966179937917 0.98648376933687409451 0.5849614856067681945 -0.55053148626623005235 -0.16177574321181495409 -0.050503599430964982164 -0.23900605092122176321 -0.82982602085208878595 -0.66124139642094226232 -0.88000719391397386193 -1.0225180855560229709 -0.92737295665896524177 -0.24273735601537937967 0.72287413925176202678 0.53449779630232541194 -0.12871285826154085785 -0.63997856493080740314;0.076999313926225873561 -0.26991776587286475664 -0.015074853284080869109 0.029511195754894282983 -0.91343032063423468259 -0.62057799231283683472 -1.1963340845842196369 -2.0080617840460539547 0.44567568441982502447 0.72448222338617318528 0.397482676487910358 0.69116063133850369482 0.14957707839708681008 0.76618009987501456415 0.15017685026721597219 0.32795909936793443684 0.28623565795258648636 0.17952181280522302997 0.19590297295685282775 0.69153173841310688896;-0.39496218015980022464 0.94016713182291788975 0.2677231232893833579 -0.56355890191089597074 -0.25303443278105391956 0.6294130194005291834 -1.3345418645763740262 -0.90151789123395353887 0.79400885569707835288 0.64339822676038893601 0.27051524055182951667 -0.38227460630376247641 0.064583533541496457309 -0.3715063704353148144 0.65432690604822929537 0.10695250677320271293 -0.60103530920329151233 -0.5159772347730011699 -0.21163705824318079785 0.69781261991737963957;-0.59151264455475061066 0.5953376766640390283 -0.90174177864172011532 0.23659285602877644372 -0.54990542744219994553 0.56176430058322956995 0.68422657153102250938 -0.015806360454296515539 -0.21203320580696163877 -0.68708752803443706725 -0.93739328081489237121 0.52429329176004513258 0.54230927866108113999 -0.053558882983128580646 -0.60979594342324383582 0.91147445105934732368 -0.77689864038743428054 0.12955767484918026544 -0.24097133301736017863 0.20584064633452753279];

% Layer 3
b3 = [-0.35898744610906874186;-0.77740716983807234275;0.10961906793284947881;0.92521056778060573045;0.81406371000433175311;-0.19925344607009468079;1.2166659735001319476;-0.30118931452021335815;1.3978486712804052416;0.57351797729959774763;-0.20107459695143331535;-1.163894592908706116;-0.65309538016112822501;-0.9287712583725469262;-0.31657448080226813225;0.0089147545163310599331;1.6461711641875274026;0.50732464622705508717];
LW3_2 = [-1.604424510865672282 -0.27098001745021638165 -1.3156440796501005508 1.0699997893293204942 0.61707919357565543805 -1.1042461117876536392 -0.21751386705774145014 0.97896287762279499134 -0.29009369568719300947 -0.70901846617658925709 0.54685410633531894575 -0.5923672311074438257 -0.68782050489275725624 -0.18978961421351064898 -0.46748102979076205932 -0.870179677347830971 0.33812120153623975716 -0.23528690070991642447 0.12641122764313869609 0.658250722623441753;0.98073673179259424071 0.9323000634337940129 1.4481600518010031564 -0.68324436475979111183 0.64309627565923210835 1.2866286008181950784 -0.32955222338740886023 -0.59982632128165414009 -0.54364423824221874693 -1.17955420726927529 -0.74442186506713736716 -1.1211642527984484463 0.37499833479532773683 -0.46390479162685382963 0.14534308358173692044 0.81862396237476475758 -0.37948202842794925838 1.7108011657212442991 0.53212254500228806098 -0.3972539097508274164;-0.022007789863409850384 -0.085960424660490669657 0.040949749103154998997 0.29891355824109461237 0.33868825172320743411 -0.11594332578061783412 -0.099730425399366356976 -0.074003121178470243624 -0.37236315304605399623 0.91319336085790359103 -0.11528029074923168418 0.57438747377643650793 -0.47569845604335297962 0.093237855594043544949 0.026548885394939113896 0.19185883633038178231 -1.5119536018834414115 -0.052546601496683401078 -0.79351022729722731075 -0.44329975908532115447;-2.2814260134232271504 -0.84138975263993787124 -0.67442658662200782871 0.50381738565556000164 -0.31126593562763044121 -1.0845345434248390148 0.560540409985489263 0.44719433305304090442 1.5903451739292837619 -0.25109181725077239777 0.51096158926634471786 0.77632884873390028968 -0.4937275088270526302 0.39147887884731902286 -1.6791338560349768905 0.39371117412318135109 0.1875716216517726298 0.27086200010934446958 0.52381874021794438967 -0.17348116463403909226;-0.88049563562782062753 0.83320079216272080469 0.18124820992561577193 -0.73390693995185440901 -0.012237390955459177821 0.45190586152392847596 -0.015402425366970130469 -0.4852044935200234832 0.6238304134199831319 -0.053382679399920286711 -1.7615324987884353192 -0.74693544528398891913 -0.49495708864679016648 1.5741966361632666604 0.41590223658714686739 -0.860203192627899349 0.23115710205271125521 -0.3088195384312917291 -0.097802110001468892109 -0.81897670952353829321;-0.42058689438305424391 0.25616191135593152639 -1.5214626166809144259 0.91047614571307577958 -1.1765124946103013848 -1.4052085017421367397 0.094477762968223882867 0.7070212693783274327 0.40484168468309505995 -0.29400131057004597057 0.78575010653312504783 0.1946690485135205706 1.2749817038685005155 -0.022186561074486740169 -0.27863477023772120766 -1.027534479756037511 0.92602640078270326285 -0.75011553051258017533 0.087775119981482657705 -0.033893784027971607387;-0.32311923307094458924 -0.044152435700424222387 0.36186339312276194491 -0.59552720581648455056 -0.51963171301597943508 0.49158390928734291281 1.6127714069951530895 -0.29845005371814004036 0.54915960695065890729 -0.97582138950329344596 -0.32524281650197295335 0.61593748412040150164 -1.2338581490347468872 -0.32095839501989470444 0.73145702803493106714 0.72429723608045548655 -1.6008521484977058513 -0.55210366329966142906 0.19173963653703748888 -0.48347486878151596512;-0.19433914809987618 0.4250719688838284771 -0.083830120631544824406 0.3256026872723163379 -0.76594489886879379981 -0.58525802909896040838 -0.21716164577946184266 -0.22753220317589906152 -0.77795921794070510558 0.34819321443310369268 0.33815099587980723683 -0.36288291419961238304 -0.46265051589015748768 0.44596120142123818475 -0.47847907796511157663 -0.11261760953333732616 -0.85056465158977578866 0.018319770533611334784 -0.48113503435872440051 -0.56740471881030107859;0.25590021986561672929 -1.1100336640690020573 0.94541837920716986776 -0.12603002943518640255 1.006594405720938612 0.28160120351633399771 -0.111584835655685638 -0.32004804317726448515 -0.33032150577250551926 1.2659529423978055362 0.12650133155449677647 0.55952563112131148415 -1.2612549555837475612 -0.73125551623777074184 -0.11860850886820659134 1.1681217577584595002 -1.22220687086791302 -0.778305088957039648 -0.83828415932582267533 0.70840620071259419177;-0.16106116367089742814 -1.6073009497345516206 -0.74514914799993137162 0.28775828920514606724 0.58372891432346629692 -0.15835751087092528322 1.5219371376365249393 0.87058032978503863131 1.2925934152937230692 0.42629229452410494217 0.69605723495212834528 0.47663598152153030529 -1.0061171663145627164 1.65471858772202296 -0.59394296764979270797 0.47363148879072242137 -0.12036748629809294886 0.11871434529099249289 -0.81960067645659651081 0.97055214876896778176;0.82476144491458402985 -0.0056232067434301754444 1.8297598641781389617 -1.625486016700592895 0.25309326200437043397 2.4635399842640977042 0.17017754302134413535 -0.72788084134883945797 -0.10734267241864106635 -1.8013819924909353354 -1.87836090203228534 1.0501002691252152577 0.29639803056888291977 -0.30590386647184131252 2.1098053631549262832 0.183186830729951039 -1.7012483926084427388 0.38024590290545412508 -1.0062734756362312627 -0.18168866271224412556;-0.43888975515848399622 1.1194346944921969023 -0.59194913470309973302 1.0472231466433381541 0.92420340878501849868 -0.57348259932413614415 -0.32709371802074332924 -1.3093636721073931284 -0.8083019732084020248 0.29857280185923051885 0.39988072257327461623 -0.33611595391205278949 0.14675803388868416399 -0.07868562653583498212 -0.024523611314426617402 0.26353040589840764918 -0.33645322294520885187 -1.006102707956505915 0.90922910139745183322 0.6025540078509598052;-0.005013852411297925471 -0.1132611199546730979 -1.4137302325401182035 -0.41710334867886084131 -0.34373163518774124681 0.12154881978152722033 -0.29938360963743326781 0.55020780666920610091 -0.1972156129904960864 0.69269416634375924335 0.30210868359102710512 1.3665150501933558402 -0.071314184008551467775 -1.198529009821543978 0.21905336611069434194 -0.73793893530978205142 0.44309995961811365905 -1.2206014715105375501 0.0085781157707501397985 -0.59014856489370570714;0.81367289170484247141 -0.39322249179891399784 0.54813836505559698775 -0.5407521902209774245 0.095930573399351348751 -0.049688980126225246181 -0.30729145880942976277 0.1387961574136934717 -0.75726500285649822608 -0.77422535259768254789 -0.95374322456630289402 0.41387489910195718323 0.4045109988660112732 -0.32401997074773447594 -0.1850544788175646771 0.13712491955884384409 0.75463738797468660202 -0.69094064957464440546 0.061768047675999061819 -0.98931829402569748666;0.83060612233372665969 -0.64669739267293113727 -1.1837000765341798569 -1.255147514145076082 0.17260531260239489471 0.083408826641602276664 -0.016761693135315232361 -0.38607442628655891381 -1.0459103806019283134 0.28398013002034594443 0.74149019169308483246 0.72606526225259582219 0.43912705624383313596 0.73235700240902690261 -0.50892831339689770243 -0.890037340952321121 -0.43575942627035724186 -0.88985477593110795524 -0.035826982958567205051 -0.56324040210091763647;0.38589272146177178158 0.84163844363066908638 1.1288446405558612007 -0.51871496456534071928 0.68166916342663586015 0.73374476984533243407 -0.64624671983261627872 -0.61239489161928439831 -0.23652668737544491062 -0.65574264748947896919 -1.1308846112025991992 0.76230638190075716842 0.5666243214711437215 -0.50478805608481991385 -0.14213350192583076859 0.28273622458831110249 -0.23458684611440655532 0.87973507213281743056 -0.30446118091353757684 -0.68121112119578919319;-0.535221154209907235 -0.51479416355971696628 -0.10423737647595143763 -0.63679149593523287631 -0.24317505870231162501 -0.080208320630988511057 0.46740347816336025311 -0.052522735142550867893 0.58982708122369598147 -0.10681087448504937576 -1.1593621230091881724 -0.94675145159740703438 -0.31043314287696976983 0.48621986939422734419 0.23569137877221088551 -0.79074487204886201308 0.079928581665951056734 -1.0731874944735610988 -0.21180124325451421541 -0.55553658628567881284;0.34041443671967019924 -0.85485153385588330543 -0.88877089986923718534 0.45919409656789123009 -0.86180129642946834423 -0.017514959228930784135 2.9112737868996827473 0.43057835638752250951 0.06599746242993285994 -0.545663822773500784 0.81182826387888706865 0.70450498140341333286 -1.5018401754609915777 1.0167819527328392226 -0.068147836508127099253 -0.55219529081469298504 -0.85236202312977149553 -0.28873118906087602564 0.50830971532184154871 0.98728795969026006407];

% Layer 4
b4 = [0.20749617077163365342;0.48164441813619401911;0.81491776074091293314;1.3291728634166757317;1.715105132751467254;1.7649299618024656411;1.6959961833894929839;1.4067366401345384741;1.0251379469066379535;0.54325520926048587178;0.19803047051021091529;-0.21152273865652684859;-0.69236035254801375771;-0.79371176780910790427;-0.74236974140197886651;-0.59866536610243259453;-0.053017692762245695326;0.96223755279459755041;1.7916639236031739468;0.13231851267775165959];
LW4_3 = [-1.7618767063046805177 0.88255519037288088224 0.72094049679650817897 -0.12810787379203178449 0.46901117412063536571 0.25332487439051021294 -0.73364544844182588701 0.37136108575008508481 0.10321601582502935857 0.74675493050726071687 -2.0494316259021370108 -0.14212678167316483702 0.68729365664435604355 -0.92630233387475380269 -0.035638981733512306582 -0.76934660427916956582 -0.089035066080390148913 -0.09089541608183558663;-1.2649792339689487353 1.0337996875154482623 0.8706673999949565701 -0.37812857196128385473 0.32870034335762737809 0.24671614812269024308 -0.93291208384973745016 -0.05247194305118085822 0.076295524632865152626 0.80741066362323099526 -2.0261152160829709601 -0.043386056286315893837 0.30099381015471343703 0.36134220056925647757 0.1648337082186532021 -1.107904403076569233 0.035296613640808736923 -0.20322357825872011672;-0.9092293947271791188 0.90499246308147385243 1.1020627074833351244 -0.70991097794588364778 0.13622628176750151141 0.046775318080771080553 -1.0411425867499628506 0.59515291961839844603 -0.15893998573805076524 0.92224187657592016087 -1.7982126835475393811 0.080664985406701569803 0.20930091484581772598 -0.044448056814421703364 0.22801628241350724302 -1.1770579362711091065 0.17697420877784200699 -0.35757125849763471415;-0.53294068680348516409 0.46382048465610353771 1.2738900691996966064 -0.92057622791443349808 -0.25168514423229743082 -0.31236971331334706381 -1.1376231234002134318 0.18825595797619620875 -0.50100625767722439807 0.89374114191753728509 -1.1214750527394619084 0.30217651034446690872 0.6155483114565581948 0.35713288871635734401 -0.15736614661911693669 -1.0832704615704724649 0.43436828997104814931 -0.5845852224432255273;-0.34281438055986163116 -0.099310146440791002842 1.1875938685234344039 -0.53778243700956585016 -0.59199419891092841528 -0.63961233209566437097 -1.0723668498391090154 0.16380637582481405445 -0.77117768085198290517 0.63089500939999787477 -0.036834894156010600241 0.57803590804433813144 0.034475265664607707139 -0.42823241789175087169 0.064696873027825424485 -0.85275621998052453243 0.63579722957630491198 -0.84616633875641777962;-0.25225542744026685504 -0.6036950440307329302 0.96927066084980750826 -0.30438694309125846615 -0.76344030341472668422 -0.87874139283887109375 -0.83324985359214343017 0.1995592980807820993 -0.90857147004007809965 0.49534297964634926847 0.59142398492807268795 0.63153150703698468504 0.41152078632060679064 0.40000414919611043674 -0.37315652957947115231 -0.39108808242344061945 0.68522065108042307102 -1.0007248311620888792;-0.20316937715407645815 -1.0053465753609049926 0.74987454257577190742 0.01707681355231729925 -0.836851749537250722 -1.0513373316171821248 -0.5768944260803030577 -0.97780389024918701324 -1.0076006558981076555 0.28941353753443344043 1.2401377653144027846 0.63399185285746983975 0.60717117963737621267 0.56923861107492412792 -0.51610383906264201137 0.070499681836459646145 0.66686500059921638428 -1.0868603465160884269;-0.039822102823722282938 -1.099079439691498461 0.48940156139566626248 0.44542222782074597509 -0.67781606466315091897 -1.0078290899750166343 -0.36806535032597376134 -0.0050595040384022738067 -0.9322479464200057464 -0.028356698349291505068 1.7415655990580103385 0.54003240497638937967 0.12476996783690157133 -0.57837828540002822475 -0.13563173020791255419 0.37740880417037808714 0.50150894523694045102 -1.0298578560666933335;-0.031712735582556279834 -0.8852111752499136621 0.3113784680777008651 0.75521010764330231968 -0.39607083715119872913 -0.79220039917086693126 -0.39728119515298171427 -0.99107771938641398002 -0.74321886875088727376 -0.44756775664810055648 1.8968996565636178087 0.44798355842194820253 0.16881210816090599924 -0.25971303586144250941 0.048603092794111429908 0.39297253142037580353 0.34421780637430343663 -0.68106666788915393163;0.0064546978039620893017 -0.41173586226679581568 0.19265117075629573096 0.99180052492362502647 -0.013557187643280566025 -0.47033368469780162391 -0.52727336432005356137 -0.69998161796778535226 -0.47503239098650973382 -0.84864348641606535129 1.7955930131919479731 0.26711979637253069342 0.6297223721281961506 -1.0042335742354020489 -0.0047325507646338157638 0.25729537733193774685 0.1501259648495253396 -0.24526639082964410421;0.13965927705533942582 0.20254263862073340619 0.15524627713241928584 1.0259548936622433501 0.40748283834009635385 -0.1602575405226112637 -0.77182187475273844601 -0.094125395145828738563 -0.21808573533400252287 -1.1957190986511905262 1.528499814108425614 0.11346578077874087953 0.65664161313237368045 0.66030896011023143544 0.41627851436807383756 -0.095733363913745470053 -0.059015618451112437925 0.21172582002251180699;0.32565894798173955493 0.97643581218101238584 0.10352213797131382123 0.66797431306070986778 0.8920013758630221945 0.015182391207863332391 -1.1514162068533475569 0.21030046601566909636 0.065753358426887884014 -1.4108615025898387785 0.89628157572177846735 -0.089097706331192003115 0.82957990133956949208 0.73289951877227355048 0.67926157424992483769 -0.50446380512718413947 -0.33323805336878359329 0.86639394815417902773;-0.25684812519004690534 1.5520039494033017746 0.043593484648943789384 0.35081370955170909642 1.2908380020205603156 0.20408766780440729116 -1.3033581019351456742 0.35073145400326821708 0.26524857500248483211 -1.3645009948617365936 0.049635757825274774702 -0.24477570775562398908 -0.07440019694985307297 -0.91289270004091238597 -1.0558520757516562938 -0.67564233382448946053 -0.68404154931229155245 1.4642951119758458312;-0.062822107523980513788 1.6269652206091349544 0.24199507692773766787 -0.54562835586571467594 1.4393063678217976609 0.057235375488420905943 -1.3482470154749215396 -0.96904810418966347285 0.0080064694939149614467 -1.3268869253206565517 -0.12651888952950482436 -0.28151410616848632218 -0.54475762625379908766 -0.27978455780096017635 -0.75656651760652937622 -0.57002540667904311178 -0.84581897977014097734 1.8626660489538557908;-0.34457010252292558095 1.3397448905681184073 0.249821306532554549 -1.1569918971556414355 1.3649738978014189783 -0.24817298995421768759 -1.2314147136613620148 -0.73575393719001414006 -0.29302090521639118093 -1.1421710131073410377 -0.35944477059408058706 -0.2726773001543555397 -0.0046587943365694779729 -0.55885147476851915194 -1.0135714425541442196 -0.23374911548597471223 -0.87967800392474893023 2.0602618497539522124;-1.0463987514221040342 0.56167851623015541129 0.043871436796555654536 -1.7288965125868895889 1.0902493158905566251 -0.7981042989342341798 -0.79341284276864998404 0.91082957866643221578 -0.73911657395626184641 -0.77284419138075477473 -0.60192855225435926148 -0.25990850733878151368 -1.0408409752786766944 0.69227632316753406894 -0.42118465805118776579 0.54721814346613484314 -0.91089525095492740459 2.0920972696380801814;-1.73176106627527715 -0.51641249304463776593 -0.36387364088844736942 -1.988331746231943864 0.44468683680232401478 -1.5492652252333907192 0.0051339610152754833888 0.9481154676496230671 -1.314334129686606234 -0.037432204878481652177 -0.79512583735268882457 -0.17776969067883618969 -0.61896466733063204568 0.79188310104875658801 -0.97046030022960483308 1.3669355110085406046 -0.81841792240181931994 1.5753436621512937332;-0.72787523065512860221 -0.98657795266762549069 -1.1954897344187793706 -1.5768678913242517581 0.12949972547716681603 -2.2662637138001540116 0.93836847812691193127 0.50905813896149632036 -1.8952068576352552043 0.73021297942407747961 -1.1057482883379097238 -0.19205203247511379305 -1.7760987946481223698 0.68656110295950456557 -0.51171516046378606735 1.223931153159093066 -1.120826512008479714 0.75889270023885657679;0.36192472200009179195 -0.22124409711298609338 -1.3946238134330908309 0.23890861240582783598 1.0679070920907738351 -2.4635787992799262902 0.54775033170523756976 0.44722095006987050425 -1.9107149945175272432 0.18551822926872266195 -0.36847272514295614787 -0.95358046174034294395 -0.097794388159076595102 -0.80901847582873520626 -1.6912703351774385219 -0.89727625516709563769 -1.0585800578323945054 0.6053439584108197824;-0.56045311515803242219 0.060432854925197211637 0.54649506892184618323 -0.22328832507278201236 -0.81124525743632192043 -1.0251635579937505849 -0.18424693061234317937 0.20564710158876264856 -0.64819558220149764427 0.35472786692674396214 -0.74506573456066382821 -3.6249966252864647132 -0.16837621236355485022 0.22627864899146202249 -1.6938384109710240555 1.087967569698949033 1.4697389355981136383 0.80396493653046186001];

% Output 1
y1_step1.ymin = -1;
y1_step1.gain = [0.802500755821863;0.795046153179173;0.843651642566484;0.861302689728883;0.824554893723227;0.82591449969154;0.835559078104517;0.854499386027448;0.811146035323034;0.816495415626639;0.849219091915591;0.877129675576119;0.835664824435897;0.884086479776279;0.908921203780069;0.941934656688791;0.941478819781556;1.11899782585839;1.37049355626026;1.37109178529941];
y1_step1.xoffset = [-1.2419579766871;-1.24676961591017;-1.17556806295506;-1.16461406936775;-1.22653136072008;-1.21306300001756;-1.19456093085463;-1.17630276611238;-1.24602981107311;-1.2144133898676;-1.18685467649328;-1.16186624473271;-1.2091409296747;-1.14802897261374;-1.11386266131242;-1.06164652432623;-1.04245844582744;-0.893732011540014;-0.729664138464663;-0.729345774456417];

% ===== SIMULATION ========

% Dimensions
Q = size(x1,2); % samples

% Input 1
xp1 = mapminmax_apply(x1,x1_step1);

% Layer 1
a1 = poslin_apply(repmat(b1,1,Q) + IW1_1*xp1);

% Layer 2
a2 = poslin_apply(repmat(b2,1,Q) + LW2_1*a1);

% Layer 3
a3 = poslin_apply(repmat(b3,1,Q) + LW3_2*a2);

% Layer 4
a4 = repmat(b4,1,Q) + LW4_3*a3;

% Output 1
y1 = mapminmax_reverse(a4,y1_step1);
end

% ===== MODULE FUNCTIONS ========

% Map Minimum and Maximum Input Processing Function
function y = mapminmax_apply(x,settings)
  y = bsxfun(@minus,x,settings.xoffset);
  y = bsxfun(@times,y,settings.gain);
  y = bsxfun(@plus,y,settings.ymin);
end

% Linear Positive Transfer Function
function a = poslin_apply(n,~)
  a = max(0,n);
  a(isnan(n)) = nan;
end

% Map Minimum and Maximum Output Reverse-Processing Function
function x = mapminmax_reverse(y,settings)
  x = bsxfun(@minus,y,settings.ymin);
  x = bsxfun(@rdivide,x,settings.gain);
  x = bsxfun(@plus,x,settings.xoffset);
end
